digraph Tree {
node [shape=box] ;
0 [label="X[1] <= 0.33\ngini = 0.8989\nsamples = 15000\nvalue = [1564, 1609, 1663, 1286, 1415, 1215, 1356, 1674, 1604, 1614]"] ;
1 [label="X[0] <= 0.6639\ngini = 0.6824\nsamples = 4988\nvalue = [0, 1606, 1645, 52, 33, 19, 17, 1616, 0, 0]"] ;
0 -> 1 [labeldistance=2.5, labelangle=45, headlabel="True"] ;
2 [label="X[0] <= 0.3332\ngini = 0.5268\nsamples = 3312\nvalue = [0, 1606, 5, 52, 17, 0, 17, 1615, 0, 0]"] ;
1 -> 2 ;
3 [label="X[1] <= 0.3154\ngini = 0.0769\nsamples = 1660\nvalue = [0, 1594, 0, 52, 0, 0, 7, 7, 0, 0]"] ;
2 -> 3 ;
4 [label="X[1] <= 0.3081\ngini = 0.0226\nsamples = 1583\nvalue = [0, 1565, 0, 9, 0, 0, 2, 7, 0, 0]"] ;
3 -> 4 ;
5 [label="X[0] <= 0.3279\ngini = 0.0116\nsamples = 1550\nvalue = [0, 1541, 0, 2, 0, 0, 0, 7, 0, 0]"] ;
4 -> 5 ;
6 [label="X[1] <= 0.3024\ngini = 0.0026\nsamples = 1519\nvalue = [0, 1517, 0, 2, 0, 0, 0, 0, 0, 0]"] ;
5 -> 6 ;
7 [label="gini = 0.0\nsamples = 1488\nvalue = [0, 1488, 0, 0, 0, 0, 0, 0, 0, 0]"] ;
6 -> 7 ;
8 [label="X[0] <= 0.0426\ngini = 0.1207\nsamples = 31\nvalue = [0, 29, 0, 2, 0, 0, 0, 0, 0, 0]"] ;
6 -> 8 ;
9 [label="gini = 0.0\nsamples = 2\nvalue = [0, 0, 0, 2, 0, 0, 0, 0, 0, 0]"] ;
8 -> 9 ;
10 [label="gini = 0.0\nsamples = 29\nvalue = [0, 29, 0, 0, 0, 0, 0, 0, 0, 0]"] ;
8 -> 10 ;
11 [label="X[1] <= 0.2085\ngini = 0.3496\nsamples = 31\nvalue = [0, 24, 0, 0, 0, 0, 0, 7, 0, 0]"] ;
5 -> 11 ;
12 [label="gini = 0.0\nsamples = 22\nvalue = [0, 22, 0, 0, 0, 0, 0, 0, 0, 0]"] ;
11 -> 12 ;
13 [label="X[0] <= 0.329\ngini = 0.3457\nsamples = 9\nvalue = [0, 2, 0, 0, 0, 0, 0, 7, 0, 0]"] ;
11 -> 13 ;
14 [label="X[0] <= 0.328\ngini = 0.4444\nsamples = 3\nvalue = [0, 2, 0, 0, 0, 0, 0, 1, 0, 0]"] ;
13 -> 14 ;
15 [label="gini = 0.0\nsamples = 1\nvalue = [0, 0, 0, 0, 0, 0, 0, 1, 0, 0]"] ;
14 -> 15 ;
16 [label="gini = 0.0\nsamples = 2\nvalue = [0, 2, 0, 0, 0, 0, 0, 0, 0, 0]"] ;
14 -> 16 ;
17 [label="gini = 0.0\nsamples = 6\nvalue = [0, 0, 0, 0, 0, 0, 0, 6, 0, 0]"] ;
13 -> 17 ;
18 [label="X[0] <= 0.0981\ngini = 0.4224\nsamples = 33\nvalue = [0, 24, 0, 7, 0, 0, 2, 0, 0, 0]"] ;
4 -> 18 ;
19 [label="gini = 0.0\nsamples = 7\nvalue = [0, 0, 0, 7, 0, 0, 0, 0, 0, 0]"] ;
18 -> 19 ;
20 [label="X[0] <= 0.3164\ngini = 0.142\nsamples = 26\nvalue = [0, 24, 0, 0, 0, 0, 2, 0, 0, 0]"] ;
18 -> 20 ;
21 [label="gini = 0.0\nsamples = 24\nvalue = [0, 24, 0, 0, 0, 0, 0, 0, 0, 0]"] ;
20 -> 21 ;
22 [label="gini = 0.0\nsamples = 2\nvalue = [0, 0, 0, 0, 0, 0, 2, 0, 0, 0]"] ;
20 -> 22 ;
23 [label="X[0] <= 0.1733\ngini = 0.5421\nsamples = 77\nvalue = [0, 29, 0, 43, 0, 0, 5, 0, 0, 0]"] ;
3 -> 23 ;
24 [label="X[0] <= 0.1289\ngini = 0.1866\nsamples = 48\nvalue = [0, 5, 0, 43, 0, 0, 0, 0, 0, 0]"] ;
23 -> 24 ;
25 [label="gini = 0.0\nsamples = 33\nvalue = [0, 0, 0, 33, 0, 0, 0, 0, 0, 0]"] ;
24 -> 25 ;
26 [label="X[1] <= 0.3219\ngini = 0.4444\nsamples = 15\nvalue = [0, 5, 0, 10, 0, 0, 0, 0, 0, 0]"] ;
24 -> 26 ;
27 [label="X[1] <= 0.3205\ngini = 0.2778\nsamples = 6\nvalue = [0, 5, 0, 1, 0, 0, 0, 0, 0, 0]"] ;
26 -> 27 ;
28 [label="gini = 0.0\nsamples = 4\nvalue = [0, 4, 0, 0, 0, 0, 0, 0, 0, 0]"] ;
27 -> 28 ;
29 [label="X[0] <= 0.146\ngini = 0.5\nsamples = 2\nvalue = [0, 1, 0, 1, 0, 0, 0, 0, 0, 0]"] ;
27 -> 29 ;
30 [label="gini = 0.0\nsamples = 1\nvalue = [0, 0, 0, 1, 0, 0, 0, 0, 0, 0]"] ;
29 -> 30 ;
31 [label="gini = 0.0\nsamples = 1\nvalue = [0, 1, 0, 0, 0, 0, 0, 0, 0, 0]"] ;
29 -> 31 ;
32 [label="gini = 0.0\nsamples = 9\nvalue = [0, 0, 0, 9, 0, 0, 0, 0, 0, 0]"] ;
26 -> 32 ;
33 [label="X[0] <= 0.307\ngini = 0.2854\nsamples = 29\nvalue = [0, 24, 0, 0, 0, 0, 5, 0, 0, 0]"] ;
23 -> 33 ;
34 [label="X[1] <= 0.3279\ngini = 0.0768\nsamples = 25\nvalue = [0, 24, 0, 0, 0, 0, 1, 0, 0, 0]"] ;
33 -> 34 ;
35 [label="gini = 0.0\nsamples = 21\nvalue = [0, 21, 0, 0, 0, 0, 0, 0, 0, 0]"] ;
34 -> 35 ;
36 [label="X[1] <= 0.3285\ngini = 0.375\nsamples = 4\nvalue = [0, 3, 0, 0, 0, 0, 1, 0, 0, 0]"] ;
34 -> 36 ;
37 [label="gini = 0.0\nsamples = 1\nvalue = [0, 0, 0, 0, 0, 0, 1, 0, 0, 0]"] ;
36 -> 37 ;
38 [label="gini = 0.0\nsamples = 3\nvalue = [0, 3, 0, 0, 0, 0, 0, 0, 0, 0]"] ;
36 -> 38 ;
39 [label="gini = 0.0\nsamples = 4\nvalue = [0, 0, 0, 0, 0, 0, 4, 0, 0, 0]"] ;
33 -> 39 ;
40 [label="X[1] <= 0.3054\ngini = 0.0524\nsamples = 1652\nvalue = [0, 12, 5, 0, 17, 0, 10, 1608, 0, 0]"] ;
2 -> 40 ;
41 [label="X[0] <= 0.3389\ngini = 0.022\nsamples = 1532\nvalue = [0, 12, 5, 0, 0, 0, 0, 1515, 0, 0]"] ;
40 -> 41 ;
42 [label="X[1] <= 0.1196\ngini = 0.4377\nsamples = 34\nvalue = [0, 11, 0, 0, 0, 0, 0, 23, 0, 0]"] ;
41 -> 42 ;
43 [label="gini = 0.0\nsamples = 11\nvalue = [0, 11, 0, 0, 0, 0, 0, 0, 0, 0]"] ;
42 -> 43 ;
44 [label="gini = 0.0\nsamples = 23\nvalue = [0, 0, 0, 0, 0, 0, 0, 23, 0, 0]"] ;
42 -> 44 ;
45 [label="X[0] <= 0.6603\ngini = 0.008\nsamples = 1498\nvalue = [0, 1, 5, 0, 0, 0, 0, 1492, 0, 0]"] ;
41 -> 45 ;
46 [label="X[0] <= 0.3421\ngini = 0.0013\nsamples = 1485\nvalue = [0, 1, 0, 0, 0, 0, 0, 1484, 0, 0]"] ;
45 -> 46 ;
47 [label="X[0] <= 0.3418\ngini = 0.1653\nsamples = 11\nvalue = [0, 1, 0, 0, 0, 0, 0, 10, 0, 0]"] ;
46 -> 47 ;
48 [label="gini = 0.0\nsamples = 10\nvalue = [0, 0, 0, 0, 0, 0, 0, 10, 0, 0]"] ;
47 -> 48 ;
49 [label="gini = 0.0\nsamples = 1\nvalue = [0, 1, 0, 0, 0, 0, 0, 0, 0, 0]"] ;
47 -> 49 ;
50 [label="gini = 0.0\nsamples = 1474\nvalue = [0, 0, 0, 0, 0, 0, 0, 1474, 0, 0]"] ;
46 -> 50 ;
51 [label="X[1] <= 0.1101\ngini = 0.4734\nsamples = 13\nvalue = [0, 0, 5, 0, 0, 0, 0, 8, 0, 0]"] ;
45 -> 51 ;
52 [label="gini = 0.0\nsamples = 4\nvalue = [0, 0, 4, 0, 0, 0, 0, 0, 0, 0]"] ;
51 -> 52 ;
53 [label="X[1] <= 0.1514\ngini = 0.1975\nsamples = 9\nvalue = [0, 0, 1, 0, 0, 0, 0, 8, 0, 0]"] ;
51 -> 53 ;
54 [label="X[1] <= 0.1418\ngini = 0.4444\nsamples = 3\nvalue = [0, 0, 1, 0, 0, 0, 0, 2, 0, 0]"] ;
53 -> 54 ;
55 [label="gini = 0.0\nsamples = 2\nvalue = [0, 0, 0, 0, 0, 0, 0, 2, 0, 0]"] ;
54 -> 55 ;
56 [label="gini = 0.0\nsamples = 1\nvalue = [0, 0, 1, 0, 0, 0, 0, 0, 0, 0]"] ;
54 -> 56 ;
57 [label="gini = 0.0\nsamples = 6\nvalue = [0, 0, 0, 0, 0, 0, 0, 6, 0, 0]"] ;
53 -> 57 ;
58 [label="X[0] <= 0.6053\ngini = 0.3724\nsamples = 120\nvalue = [0, 0, 0, 0, 17, 0, 10, 93, 0, 0]"] ;
40 -> 58 ;
59 [label="X[0] <= 0.3699\ngini = 0.1816\nsamples = 99\nvalue = [0, 0, 0, 0, 0, 0, 10, 89, 0, 0]"] ;
58 -> 59 ;
60 [label="X[1] <= 0.3157\ngini = 0.4844\nsamples = 17\nvalue = [0, 0, 0, 0, 0, 0, 10, 7, 0, 0]"] ;
59 -> 60 ;
61 [label="gini = 0.0\nsamples = 7\nvalue = [0, 0, 0, 0, 0, 0, 0, 7, 0, 0]"] ;
60 -> 61 ;
62 [label="gini = 0.0\nsamples = 10\nvalue = [0, 0, 0, 0, 0, 0, 10, 0, 0, 0]"] ;
60 -> 62 ;
63 [label="gini = 0.0\nsamples = 82\nvalue = [0, 0, 0, 0, 0, 0, 0, 82, 0, 0]"] ;
59 -> 63 ;
64 [label="X[0] <= 0.6212\ngini = 0.3084\nsamples = 21\nvalue = [0, 0, 0, 0, 17, 0, 0, 4, 0, 0]"] ;
58 -> 64 ;
65 [label="X[1] <= 0.3202\ngini = 0.5\nsamples = 6\nvalue = [0, 0, 0, 0, 3, 0, 0, 3, 0, 0]"] ;
64 -> 65 ;
66 [label="gini = 0.0\nsamples = 3\nvalue = [0, 0, 0, 0, 0, 0, 0, 3, 0, 0]"] ;
65 -> 66 ;
67 [label="gini = 0.0\nsamples = 3\nvalue = [0, 0, 0, 0, 3, 0, 0, 0, 0, 0]"] ;
65 -> 67 ;
68 [label="X[1] <= 0.307\ngini = 0.1244\nsamples = 15\nvalue = [0, 0, 0, 0, 14, 0, 0, 1, 0, 0]"] ;
64 -> 68 ;
69 [label="X[0] <= 0.6425\ngini = 0.4444\nsamples = 3\nvalue = [0, 0, 0, 0, 2, 0, 0, 1, 0, 0]"] ;
68 -> 69 ;
70 [label="gini = 0.0\nsamples = 1\nvalue = [0, 0, 0, 0, 0, 0, 0, 1, 0, 0]"] ;
69 -> 70 ;
71 [label="gini = 0.0\nsamples = 2\nvalue = [0, 0, 0, 0, 2, 0, 0, 0, 0, 0]"] ;
69 -> 71 ;
72 [label="gini = 0.0\nsamples = 12\nvalue = [0, 0, 0, 0, 12, 0, 0, 0, 0, 0]"] ;
68 -> 72 ;
73 [label="X[1] <= 0.3095\ngini = 0.0423\nsamples = 1676\nvalue = [0, 0, 1640, 0, 16, 19, 0, 1, 0, 0]"] ;
1 -> 73 ;
74 [label="X[0] <= 0.6647\ngini = 0.0038\nsamples = 1572\nvalue = [0, 0, 1569, 0, 2, 0, 0, 1, 0, 0]"] ;
73 -> 74 ;
75 [label="X[1] <= 0.264\ngini = 0.375\nsamples = 4\nvalue = [0, 0, 3, 0, 0, 0, 0, 1, 0, 0]"] ;
74 -> 75 ;
76 [label="gini = 0.0\nsamples = 3\nvalue = [0, 0, 3, 0, 0, 0, 0, 0, 0, 0]"] ;
75 -> 76 ;
77 [label="gini = 0.0\nsamples = 1\nvalue = [0, 0, 0, 0, 0, 0, 0, 1, 0, 0]"] ;
75 -> 77 ;
78 [label="X[1] <= 0.3016\ngini = 0.0025\nsamples = 1568\nvalue = [0, 0, 1566, 0, 2, 0, 0, 0, 0, 0]"] ;
74 -> 78 ;
79 [label="gini = 0.0\nsamples = 1528\nvalue = [0, 0, 1528, 0, 0, 0, 0, 0, 0, 0]"] ;
78 -> 79 ;
80 [label="X[0] <= 0.6821\ngini = 0.095\nsamples = 40\nvalue = [0, 0, 38, 0, 2, 0, 0, 0, 0, 0]"] ;
78 -> 80 ;
81 [label="gini = 0.0\nsamples = 2\nvalue = [0, 0, 0, 0, 2, 0, 0, 0, 0, 0]"] ;
80 -> 81 ;
82 [label="gini = 0.0\nsamples = 38\nvalue = [0, 0, 38, 0, 0, 0, 0, 0, 0, 0]"] ;
80 -> 82 ;
83 [label="X[0] <= 0.9039\ngini = 0.4824\nsamples = 104\nvalue = [0, 0, 71, 0, 14, 19, 0, 0, 0, 0]"] ;
73 -> 83 ;
84 [label="X[0] <= 0.6964\ngini = 0.2945\nsamples = 78\nvalue = [0, 0, 64, 0, 14, 0, 0, 0, 0, 0]"] ;
83 -> 84 ;
85 [label="X[0] <= 0.6914\ngini = 0.142\nsamples = 13\nvalue = [0, 0, 1, 0, 12, 0, 0, 0, 0, 0]"] ;
84 -> 85 ;
86 [label="gini = 0.0\nsamples = 11\nvalue = [0, 0, 0, 0, 11, 0, 0, 0, 0, 0]"] ;
85 -> 86 ;
87 [label="X[0] <= 0.6947\ngini = 0.5\nsamples = 2\nvalue = [0, 0, 1, 0, 1, 0, 0, 0, 0, 0]"] ;
85 -> 87 ;
88 [label="gini = 0.0\nsamples = 1\nvalue = [0, 0, 1, 0, 0, 0, 0, 0, 0, 0]"] ;
87 -> 88 ;
89 [label="gini = 0.0\nsamples = 1\nvalue = [0, 0, 0, 0, 1, 0, 0, 0, 0, 0]"] ;
87 -> 89 ;
90 [label="X[0] <= 0.7037\ngini = 0.0596\nsamples = 65\nvalue = [0, 0, 63, 0, 2, 0, 0, 0, 0, 0]"] ;
84 -> 90 ;
91 [label="X[1] <= 0.317\ngini = 0.48\nsamples = 5\nvalue = [0, 0, 3, 0, 2, 0, 0, 0, 0, 0]"] ;
90 -> 91 ;
92 [label="gini = 0.0\nsamples = 3\nvalue = [0, 0, 3, 0, 0, 0, 0, 0, 0, 0]"] ;
91 -> 92 ;
93 [label="gini = 0.0\nsamples = 2\nvalue = [0, 0, 0, 0, 2, 0, 0, 0, 0, 0]"] ;
91 -> 93 ;
94 [label="gini = 0.0\nsamples = 60\nvalue = [0, 0, 60, 0, 0, 0, 0, 0, 0, 0]"] ;
90 -> 94 ;
95 [label="X[1] <= 0.3135\ngini = 0.3935\nsamples = 26\nvalue = [0, 0, 7, 0, 0, 19, 0, 0, 0, 0]"] ;
83 -> 95 ;
96 [label="X[0] <= 0.9791\ngini = 0.3457\nsamples = 9\nvalue = [0, 0, 7, 0, 0, 2, 0, 0, 0, 0]"] ;
95 -> 96 ;
97 [label="gini = 0.0\nsamples = 6\nvalue = [0, 0, 6, 0, 0, 0, 0, 0, 0, 0]"] ;
96 -> 97 ;
98 [label="X[0] <= 0.9851\ngini = 0.4444\nsamples = 3\nvalue = [0, 0, 1, 0, 0, 2, 0, 0, 0, 0]"] ;
96 -> 98 ;
99 [label="gini = 0.0\nsamples = 1\nvalue = [0, 0, 0, 0, 0, 1, 0, 0, 0, 0]"] ;
98 -> 99 ;
100 [label="X[1] <= 0.3096\ngini = 0.5\nsamples = 2\nvalue = [0, 0, 1, 0, 0, 1, 0, 0, 0, 0]"] ;
98 -> 100 ;
101 [label="gini = 0.0\nsamples = 1\nvalue = [0, 0, 0, 0, 0, 1, 0, 0, 0, 0]"] ;
100 -> 101 ;
102 [label="gini = 0.0\nsamples = 1\nvalue = [0, 0, 1, 0, 0, 0, 0, 0, 0, 0]"] ;
100 -> 102 ;
103 [label="gini = 0.0\nsamples = 17\nvalue = [0, 0, 0, 0, 0, 17, 0, 0, 0, 0]"] ;
95 -> 103 ;
104 [label="X[1] <= 0.6715\ngini = 0.8575\nsamples = 10012\nvalue = [1564, 3, 18, 1234, 1382, 1196, 1339, 58, 1604, 1614]"] ;
0 -> 104 [labeldistance=2.5, labelangle=-45, headlabel="False"] ;
105 [label="X[0] <= 0.4937\ngini = 0.7638\nsamples = 5157\nvalue = [22, 3, 18, 1229, 1336, 1187, 1254, 58, 25, 25]"] ;
104 -> 105 ;
106 [label="X[0] <= 0.2432\ngini = 0.5255\nsamples = 2536\nvalue = [3, 3, 0, 1229, 8, 0, 1241, 27, 25, 0]"] ;
105 -> 106 ;
107 [label="X[1] <= 0.6604\ngini = 0.084\nsamples = 1267\nvalue = [0, 1, 0, 1212, 0, 0, 29, 0, 25, 0]"] ;
106 -> 107 ;
108 [label="X[0] <= 0.2226\ngini = 0.051\nsamples = 1225\nvalue = [0, 1, 0, 1193, 0, 0, 28, 0, 3, 0]"] ;
107 -> 108 ;
109 [label="X[1] <= 0.6586\ngini = 0.0088\nsamples = 1136\nvalue = [0, 0, 0, 1131, 0, 0, 2, 0, 3, 0]"] ;
108 -> 109 ;
110 [label="X[0] <= 0.2189\ngini = 0.0053\nsamples = 1127\nvalue = [0, 0, 0, 1124, 0, 0, 2, 0, 1, 0]"] ;
109 -> 110 ;
111 [label="X[1] <= 0.6549\ngini = 0.0018\nsamples = 1112\nvalue = [0, 0, 0, 1111, 0, 0, 0, 0, 1, 0]"] ;
110 -> 111 ;
112 [label="gini = 0.0\nsamples = 1096\nvalue = [0, 0, 0, 1096, 0, 0, 0, 0, 0, 0]"] ;
111 -> 112 ;
113 [label="X[1] <= 0.6552\ngini = 0.1172\nsamples = 16\nvalue = [0, 0, 0, 15, 0, 0, 0, 0, 1, 0]"] ;
111 -> 113 ;
114 [label="gini = 0.0\nsamples = 1\nvalue = [0, 0, 0, 0, 0, 0, 0, 0, 1, 0]"] ;
113 -> 114 ;
115 [label="gini = 0.0\nsamples = 15\nvalue = [0, 0, 0, 15, 0, 0, 0, 0, 0, 0]"] ;
113 -> 115 ;
116 [label="X[1] <= 0.6394\ngini = 0.2311\nsamples = 15\nvalue = [0, 0, 0, 13, 0, 0, 2, 0, 0, 0]"] ;
110 -> 116 ;
117 [label="gini = 0.0\nsamples = 13\nvalue = [0, 0, 0, 13, 0, 0, 0, 0, 0, 0]"] ;
116 -> 117 ;
118 [label="gini = 0.0\nsamples = 2\nvalue = [0, 0, 0, 0, 0, 0, 2, 0, 0, 0]"] ;
116 -> 118 ;
119 [label="X[0] <= 0.1655\ngini = 0.3457\nsamples = 9\nvalue = [0, 0, 0, 7, 0, 0, 0, 0, 2, 0]"] ;
109 -> 119 ;
120 [label="gini = 0.0\nsamples = 7\nvalue = [0, 0, 0, 7, 0, 0, 0, 0, 0, 0]"] ;
119 -> 120 ;
121 [label="gini = 0.0\nsamples = 2\nvalue = [0, 0, 0, 0, 0, 0, 0, 0, 2, 0]"] ;
119 -> 121 ;
122 [label="X[1] <= 0.5468\ngini = 0.4292\nsamples = 89\nvalue = [0, 1, 0, 62, 0, 0, 26, 0, 0, 0]"] ;
108 -> 122 ;
123 [label="X[1] <= 0.3341\ngini = 0.0931\nsamples = 62\nvalue = [0, 1, 0, 59, 0, 0, 2, 0, 0, 0]"] ;
122 -> 123 ;
124 [label="gini = 0.0\nsamples = 1\nvalue = [0, 1, 0, 0, 0, 0, 0, 0, 0, 0]"] ;
123 -> 124 ;
125 [label="X[1] <= 0.5036\ngini = 0.0634\nsamples = 61\nvalue = [0, 0, 0, 59, 0, 0, 2, 0, 0, 0]"] ;
123 -> 125 ;
126 [label="gini = 0.0\nsamples = 50\nvalue = [0, 0, 0, 50, 0, 0, 0, 0, 0, 0]"] ;
125 -> 126 ;
127 [label="X[0] <= 0.2368\ngini = 0.2975\nsamples = 11\nvalue = [0, 0, 0, 9, 0, 0, 2, 0, 0, 0]"] ;
125 -> 127 ;
128 [label="gini = 0.0\nsamples = 9\nvalue = [0, 0, 0, 9, 0, 0, 0, 0, 0, 0]"] ;
127 -> 128 ;
129 [label="gini = 0.0\nsamples = 2\nvalue = [0, 0, 0, 0, 0, 0, 2, 0, 0, 0]"] ;
127 -> 129 ;
130 [label="X[1] <= 0.5575\ngini = 0.1975\nsamples = 27\nvalue = [0, 0, 0, 3, 0, 0, 24, 0, 0, 0]"] ;
122 -> 130 ;
131 [label="X[0] <= 0.2312\ngini = 0.5\nsamples = 4\nvalue = [0, 0, 0, 2, 0, 0, 2, 0, 0, 0]"] ;
130 -> 131 ;
132 [label="gini = 0.0\nsamples = 2\nvalue = [0, 0, 0, 2, 0, 0, 0, 0, 0, 0]"] ;
131 -> 132 ;
133 [label="gini = 0.0\nsamples = 2\nvalue = [0, 0, 0, 0, 0, 0, 2, 0, 0, 0]"] ;
131 -> 133 ;
134 [label="X[1] <= 0.5684\ngini = 0.0832\nsamples = 23\nvalue = [0, 0, 0, 1, 0, 0, 22, 0, 0, 0]"] ;
130 -> 134 ;
135 [label="X[1] <= 0.5642\ngini = 0.32\nsamples = 5\nvalue = [0, 0, 0, 1, 0, 0, 4, 0, 0, 0]"] ;
134 -> 135 ;
136 [label="gini = 0.0\nsamples = 4\nvalue = [0, 0, 0, 0, 0, 0, 4, 0, 0, 0]"] ;
135 -> 136 ;
137 [label="gini = 0.0\nsamples = 1\nvalue = [0, 0, 0, 1, 0, 0, 0, 0, 0, 0]"] ;
135 -> 137 ;
138 [label="gini = 0.0\nsamples = 18\nvalue = [0, 0, 0, 0, 0, 0, 18, 0, 0, 0]"] ;
134 -> 138 ;
139 [label="X[0] <= 0.1048\ngini = 0.5204\nsamples = 42\nvalue = [0, 0, 0, 19, 0, 0, 1, 0, 22, 0]"] ;
107 -> 139 ;
140 [label="gini = 0.0\nsamples = 19\nvalue = [0, 0, 0, 19, 0, 0, 0, 0, 0, 0]"] ;
139 -> 140 ;
141 [label="X[0] <= 0.2373\ngini = 0.0832\nsamples = 23\nvalue = [0, 0, 0, 0, 0, 0, 1, 0, 22, 0]"] ;
139 -> 141 ;
142 [label="gini = 0.0\nsamples = 22\nvalue = [0, 0, 0, 0, 0, 0, 0, 0, 22, 0]"] ;
141 -> 142 ;
143 [label="gini = 0.0\nsamples = 1\nvalue = [0, 0, 0, 0, 0, 0, 1, 0, 0, 0]"] ;
141 -> 143 ;
144 [label="X[1] <= 0.3593\ngini = 0.0871\nsamples = 1269\nvalue = [3, 2, 0, 17, 8, 0, 1212, 27, 0, 0]"] ;
106 -> 144 ;
145 [label="X[0] <= 0.4115\ngini = 0.4534\nsamples = 94\nvalue = [0, 2, 0, 1, 0, 0, 64, 27, 0, 0]"] ;
144 -> 145 ;
146 [label="X[0] <= 0.2653\ngini = 0.0931\nsamples = 62\nvalue = [0, 2, 0, 1, 0, 0, 59, 0, 0, 0]"] ;
145 -> 146 ;
147 [label="X[1] <= 0.3461\ngini = 0.4444\nsamples = 3\nvalue = [0, 2, 0, 1, 0, 0, 0, 0, 0, 0]"] ;
146 -> 147 ;
148 [label="gini = 0.0\nsamples = 2\nvalue = [0, 2, 0, 0, 0, 0, 0, 0, 0, 0]"] ;
147 -> 148 ;
149 [label="gini = 0.0\nsamples = 1\nvalue = [0, 0, 0, 1, 0, 0, 0, 0, 0, 0]"] ;
147 -> 149 ;
150 [label="gini = 0.0\nsamples = 59\nvalue = [0, 0, 0, 0, 0, 0, 59, 0, 0, 0]"] ;
146 -> 150 ;
151 [label="X[0] <= 0.4446\ngini = 0.2637\nsamples = 32\nvalue = [0, 0, 0, 0, 0, 0, 5, 27, 0, 0]"] ;
145 -> 151 ;
152 [label="X[1] <= 0.3472\ngini = 0.4959\nsamples = 11\nvalue = [0, 0, 0, 0, 0, 0, 5, 6, 0, 0]"] ;
151 -> 152 ;
153 [label="gini = 0.0\nsamples = 6\nvalue = [0, 0, 0, 0, 0, 0, 0, 6, 0, 0]"] ;
152 -> 153 ;
154 [label="gini = 0.0\nsamples = 5\nvalue = [0, 0, 0, 0, 0, 0, 5, 0, 0, 0]"] ;
152 -> 154 ;
155 [label="gini = 0.0\nsamples = 21\nvalue = [0, 0, 0, 0, 0, 0, 0, 21, 0, 0]"] ;
151 -> 155 ;
156 [label="X[0] <= 0.2497\ngini = 0.0452\nsamples = 1175\nvalue = [3, 0, 0, 16, 8, 0, 1148, 0, 0, 0]"] ;
144 -> 156 ;
157 [label="X[1] <= 0.4587\ngini = 0.4898\nsamples = 28\nvalue = [0, 0, 0, 12, 0, 0, 16, 0, 0, 0]"] ;
156 -> 157 ;
158 [label="gini = 0.0\nsamples = 12\nvalue = [0, 0, 0, 12, 0, 0, 0, 0, 0, 0]"] ;
157 -> 158 ;
159 [label="gini = 0.0\nsamples = 16\nvalue = [0, 0, 0, 0, 0, 0, 16, 0, 0, 0]"] ;
157 -> 159 ;
160 [label="X[0] <= 0.4905\ngini = 0.0259\nsamples = 1147\nvalue = [3, 0, 0, 4, 8, 0, 1132, 0, 0, 0]"] ;
156 -> 160 ;
161 [label="X[0] <= 0.2575\ngini = 0.0106\nsamples = 1126\nvalue = [1, 0, 0, 4, 1, 0, 1120, 0, 0, 0]"] ;
160 -> 161 ;
162 [label="X[1] <= 0.3845\ngini = 0.1723\nsamples = 42\nvalue = [0, 0, 0, 4, 0, 0, 38, 0, 0, 0]"] ;
161 -> 162 ;
163 [label="gini = 0.0\nsamples = 4\nvalue = [0, 0, 0, 4, 0, 0, 0, 0, 0, 0]"] ;
162 -> 163 ;
164 [label="gini = 0.0\nsamples = 38\nvalue = [0, 0, 0, 0, 0, 0, 38, 0, 0, 0]"] ;
162 -> 164 ;
165 [label="X[0] <= 0.4834\ngini = 0.0037\nsamples = 1084\nvalue = [1, 0, 0, 0, 1, 0, 1082, 0, 0, 0]"] ;
161 -> 165 ;
166 [label="gini = 0.0\nsamples = 1062\nvalue = [0, 0, 0, 0, 0, 0, 1062, 0, 0, 0]"] ;
165 -> 166 ;
167 [label="X[0] <= 0.4836\ngini = 0.1694\nsamples = 22\nvalue = [1, 0, 0, 0, 1, 0, 20, 0, 0, 0]"] ;
165 -> 167 ;
168 [label="gini = 0.0\nsamples = 1\nvalue = [1, 0, 0, 0, 0, 0, 0, 0, 0, 0]"] ;
167 -> 168 ;
169 [label="X[1] <= 0.3964\ngini = 0.0907\nsamples = 21\nvalue = [0, 0, 0, 0, 1, 0, 20, 0, 0, 0]"] ;
167 -> 169 ;
170 [label="gini = 0.0\nsamples = 1\nvalue = [0, 0, 0, 0, 1, 0, 0, 0, 0, 0]"] ;
169 -> 170 ;
171 [label="gini = 0.0\nsamples = 20\nvalue = [0, 0, 0, 0, 0, 0, 20, 0, 0, 0]"] ;
169 -> 171 ;
172 [label="X[1] <= 0.4699\ngini = 0.5533\nsamples = 21\nvalue = [2, 0, 0, 0, 7, 0, 12, 0, 0, 0]"] ;
160 -> 172 ;
173 [label="gini = 0.0\nsamples = 7\nvalue = [0, 0, 0, 0, 7, 0, 0, 0, 0, 0]"] ;
172 -> 173 ;
174 [label="X[1] <= 0.6561\ngini = 0.2449\nsamples = 14\nvalue = [2, 0, 0, 0, 0, 0, 12, 0, 0, 0]"] ;
172 -> 174 ;
175 [label="gini = 0.0\nsamples = 12\nvalue = [0, 0, 0, 0, 0, 0, 12, 0, 0, 0]"] ;
174 -> 175 ;
176 [label="gini = 0.0\nsamples = 2\nvalue = [2, 0, 0, 0, 0, 0, 0, 0, 0, 0]"] ;
174 -> 176 ;
177 [label="X[0] <= 0.7562\ngini = 0.5378\nsamples = 2621\nvalue = [19, 0, 18, 0, 1328, 1187, 13, 31, 0, 25]"] ;
105 -> 177 ;
178 [label="X[1] <= 0.3537\ngini = 0.101\nsamples = 1397\nvalue = [19, 0, 6, 0, 1324, 1, 13, 31, 0, 3]"] ;
177 -> 178 ;
179 [label="X[0] <= 0.5681\ngini = 0.4722\nsamples = 111\nvalue = [0, 0, 6, 0, 75, 1, 0, 29, 0, 0]"] ;
178 -> 179 ;
180 [label="X[0] <= 0.5375\ngini = 0.2188\nsamples = 32\nvalue = [0, 0, 0, 0, 4, 0, 0, 28, 0, 0]"] ;
179 -> 180 ;
181 [label="gini = 0.0\nsamples = 22\nvalue = [0, 0, 0, 0, 0, 0, 0, 22, 0, 0]"] ;
180 -> 181 ;
182 [label="X[1] <= 0.3482\ngini = 0.48\nsamples = 10\nvalue = [0, 0, 0, 0, 4, 0, 0, 6, 0, 0]"] ;
180 -> 182 ;
183 [label="X[1] <= 0.3426\ngini = 0.2449\nsamples = 7\nvalue = [0, 0, 0, 0, 1, 0, 0, 6, 0, 0]"] ;
182 -> 183 ;
184 [label="gini = 0.0\nsamples = 4\nvalue = [0, 0, 0, 0, 0, 0, 0, 4, 0, 0]"] ;
183 -> 184 ;
185 [label="X[1] <= 0.3448\ngini = 0.4444\nsamples = 3\nvalue = [0, 0, 0, 0, 1, 0, 0, 2, 0, 0]"] ;
183 -> 185 ;
186 [label="gini = 0.0\nsamples = 1\nvalue = [0, 0, 0, 0, 1, 0, 0, 0, 0, 0]"] ;
185 -> 186 ;
187 [label="gini = 0.0\nsamples = 2\nvalue = [0, 0, 0, 0, 0, 0, 0, 2, 0, 0]"] ;
185 -> 187 ;
188 [label="gini = 0.0\nsamples = 3\nvalue = [0, 0, 0, 0, 3, 0, 0, 0, 0, 0]"] ;
182 -> 188 ;
189 [label="X[0] <= 0.7282\ngini = 0.1862\nsamples = 79\nvalue = [0, 0, 6, 0, 71, 1, 0, 1, 0, 0]"] ;
179 -> 189 ;
190 [label="X[0] <= 0.5723\ngini = 0.0282\nsamples = 70\nvalue = [0, 0, 0, 0, 69, 0, 0, 1, 0, 0]"] ;
189 -> 190 ;
191 [label="X[0] <= 0.5722\ngini = 0.4444\nsamples = 3\nvalue = [0, 0, 0, 0, 2, 0, 0, 1, 0, 0]"] ;
190 -> 191 ;
192 [label="gini = 0.0\nsamples = 2\nvalue = [0, 0, 0, 0, 2, 0, 0, 0, 0, 0]"] ;
191 -> 192 ;
193 [label="gini = 0.0\nsamples = 1\nvalue = [0, 0, 0, 0, 0, 0, 0, 1, 0, 0]"] ;
191 -> 193 ;
194 [label="gini = 0.0\nsamples = 67\nvalue = [0, 0, 0, 0, 67, 0, 0, 0, 0, 0]"] ;
190 -> 194 ;
195 [label="X[1] <= 0.3422\ngini = 0.4938\nsamples = 9\nvalue = [0, 0, 6, 0, 2, 1, 0, 0, 0, 0]"] ;
189 -> 195 ;
196 [label="gini = 0.0\nsamples = 6\nvalue = [0, 0, 6, 0, 0, 0, 0, 0, 0, 0]"] ;
195 -> 196 ;
197 [label="X[1] <= 0.3519\ngini = 0.4444\nsamples = 3\nvalue = [0, 0, 0, 0, 2, 1, 0, 0, 0, 0]"] ;
195 -> 197 ;
198 [label="gini = 0.0\nsamples = 2\nvalue = [0, 0, 0, 0, 2, 0, 0, 0, 0, 0]"] ;
197 -> 198 ;
199 [label="gini = 0.0\nsamples = 1\nvalue = [0, 0, 0, 0, 0, 1, 0, 0, 0, 0]"] ;
197 -> 199 ;
200 [label="X[1] <= 0.6617\ngini = 0.0564\nsamples = 1286\nvalue = [19, 0, 0, 0, 1249, 0, 13, 2, 0, 3]"] ;
178 -> 200 ;
201 [label="X[0] <= 0.5016\ngini = 0.027\nsamples = 1245\nvalue = [1, 0, 0, 0, 1228, 0, 13, 2, 0, 1]"] ;
200 -> 201 ;
202 [label="X[1] <= 0.5403\ngini = 0.5344\nsamples = 33\nvalue = [1, 0, 0, 0, 19, 0, 12, 1, 0, 0]"] ;
201 -> 202 ;
203 [label="X[1] <= 0.368\ngini = 0.095\nsamples = 20\nvalue = [0, 0, 0, 0, 19, 0, 0, 1, 0, 0]"] ;
202 -> 203 ;
204 [label="gini = 0.0\nsamples = 1\nvalue = [0, 0, 0, 0, 0, 0, 0, 1, 0, 0]"] ;
203 -> 204 ;
205 [label="gini = 0.0\nsamples = 19\nvalue = [0, 0, 0, 0, 19, 0, 0, 0, 0, 0]"] ;
203 -> 205 ;
206 [label="X[1] <= 0.6552\ngini = 0.142\nsamples = 13\nvalue = [1, 0, 0, 0, 0, 0, 12, 0, 0, 0]"] ;
202 -> 206 ;
207 [label="gini = 0.0\nsamples = 12\nvalue = [0, 0, 0, 0, 0, 0, 12, 0, 0, 0]"] ;
206 -> 207 ;
208 [label="gini = 0.0\nsamples = 1\nvalue = [1, 0, 0, 0, 0, 0, 0, 0, 0, 0]"] ;
206 -> 208 ;
209 [label="X[0] <= 0.5056\ngini = 0.0049\nsamples = 1212\nvalue = [0, 0, 0, 0, 1209, 0, 1, 1, 0, 1]"] ;
201 -> 209 ;
210 [label="X[0] <= 0.5054\ngini = 0.2266\nsamples = 16\nvalue = [0, 0, 0, 0, 14, 0, 1, 1, 0, 0]"] ;
209 -> 210 ;
211 [label="X[1] <= 0.6153\ngini = 0.1244\nsamples = 15\nvalue = [0, 0, 0, 0, 14, 0, 1, 0, 0, 0]"] ;
210 -> 211 ;
212 [label="gini = 0.0\nsamples = 14\nvalue = [0, 0, 0, 0, 14, 0, 0, 0, 0, 0]"] ;
211 -> 212 ;
213 [label="gini = 0.0\nsamples = 1\nvalue = [0, 0, 0, 0, 0, 0, 1, 0, 0, 0]"] ;
211 -> 213 ;
214 [label="gini = 0.0\nsamples = 1\nvalue = [0, 0, 0, 0, 0, 0, 0, 1, 0, 0]"] ;
210 -> 214 ;
215 [label="X[1] <= 0.6567\ngini = 0.0017\nsamples = 1196\nvalue = [0, 0, 0, 0, 1195, 0, 0, 0, 0, 1]"] ;
209 -> 215 ;
216 [label="gini = 0.0\nsamples = 1182\nvalue = [0, 0, 0, 0, 1182, 0, 0, 0, 0, 0]"] ;
215 -> 216 ;
217 [label="X[1] <= 0.6568\ngini = 0.1327\nsamples = 14\nvalue = [0, 0, 0, 0, 13, 0, 0, 0, 0, 1]"] ;
215 -> 217 ;
218 [label="gini = 0.0\nsamples = 1\nvalue = [0, 0, 0, 0, 0, 0, 0, 0, 0, 1]"] ;
217 -> 218 ;
219 [label="gini = 0.0\nsamples = 13\nvalue = [0, 0, 0, 0, 13, 0, 0, 0, 0, 0]"] ;
217 -> 219 ;
220 [label="X[0] <= 0.5568\ngini = 0.5425\nsamples = 41\nvalue = [18, 0, 0, 0, 21, 0, 0, 0, 0, 2]"] ;
200 -> 220 ;
221 [label="gini = 0.0\nsamples = 18\nvalue = [18, 0, 0, 0, 0, 0, 0, 0, 0, 0]"] ;
220 -> 221 ;
222 [label="X[0] <= 0.7278\ngini = 0.1588\nsamples = 23\nvalue = [0, 0, 0, 0, 21, 0, 0, 0, 0, 2]"] ;
220 -> 222 ;
223 [label="gini = 0.0\nsamples = 21\nvalue = [0, 0, 0, 0, 21, 0, 0, 0, 0, 0]"] ;
222 -> 223 ;
224 [label="gini = 0.0\nsamples = 2\nvalue = [0, 0, 0, 0, 0, 0, 0, 0, 0, 2]"] ;
222 -> 224 ;
225 [label="X[1] <= 0.6581\ngini = 0.0607\nsamples = 1224\nvalue = [0, 0, 12, 0, 4, 1186, 0, 0, 0, 22]"] ;
177 -> 225 ;
226 [label="X[1] <= 0.3446\ngini = 0.0285\nsamples = 1179\nvalue = [0, 0, 12, 0, 4, 1162, 0, 0, 0, 1]"] ;
225 -> 226 ;
227 [label="X[0] <= 0.8298\ngini = 0.3967\nsamples = 44\nvalue = [0, 0, 12, 0, 0, 32, 0, 0, 0, 0]"] ;
226 -> 227 ;
228 [label="X[0] <= 0.7926\ngini = 0.32\nsamples = 15\nvalue = [0, 0, 12, 0, 0, 3, 0, 0, 0, 0]"] ;
227 -> 228 ;
229 [label="gini = 0.0\nsamples = 9\nvalue = [0, 0, 9, 0, 0, 0, 0, 0, 0, 0]"] ;
228 -> 229 ;
230 [label="X[1] <= 0.3384\ngini = 0.5\nsamples = 6\nvalue = [0, 0, 3, 0, 0, 3, 0, 0, 0, 0]"] ;
228 -> 230 ;
231 [label="gini = 0.0\nsamples = 3\nvalue = [0, 0, 3, 0, 0, 0, 0, 0, 0, 0]"] ;
230 -> 231 ;
232 [label="gini = 0.0\nsamples = 3\nvalue = [0, 0, 0, 0, 0, 3, 0, 0, 0, 0]"] ;
230 -> 232 ;
233 [label="gini = 0.0\nsamples = 29\nvalue = [0, 0, 0, 0, 0, 29, 0, 0, 0, 0]"] ;
227 -> 233 ;
234 [label="X[0] <= 0.7599\ngini = 0.0088\nsamples = 1135\nvalue = [0, 0, 0, 0, 4, 1130, 0, 0, 0, 1]"] ;
226 -> 234 ;
235 [label="X[1] <= 0.5948\ngini = 0.3084\nsamples = 21\nvalue = [0, 0, 0, 0, 4, 17, 0, 0, 0, 0]"] ;
234 -> 235 ;
236 [label="gini = 0.0\nsamples = 17\nvalue = [0, 0, 0, 0, 0, 17, 0, 0, 0, 0]"] ;
235 -> 236 ;
237 [label="gini = 0.0\nsamples = 4\nvalue = [0, 0, 0, 0, 4, 0, 0, 0, 0, 0]"] ;
235 -> 237 ;
238 [label="X[1] <= 0.6538\ngini = 0.0018\nsamples = 1114\nvalue = [0, 0, 0, 0, 0, 1113, 0, 0, 0, 1]"] ;
234 -> 238 ;
239 [label="gini = 0.0\nsamples = 1103\nvalue = [0, 0, 0, 0, 0, 1103, 0, 0, 0, 0]"] ;
238 -> 239 ;
240 [label="X[0] <= 0.7887\ngini = 0.1653\nsamples = 11\nvalue = [0, 0, 0, 0, 0, 10, 0, 0, 0, 1]"] ;
238 -> 240 ;
241 [label="gini = 0.0\nsamples = 1\nvalue = [0, 0, 0, 0, 0, 0, 0, 0, 0, 1]"] ;
240 -> 241 ;
242 [label="gini = 0.0\nsamples = 10\nvalue = [0, 0, 0, 0, 0, 10, 0, 0, 0, 0]"] ;
240 -> 242 ;
243 [label="X[0] <= 0.8478\ngini = 0.4978\nsamples = 45\nvalue = [0, 0, 0, 0, 0, 24, 0, 0, 0, 21]"] ;
225 -> 243 ;
244 [label="gini = 0.0\nsamples = 20\nvalue = [0, 0, 0, 0, 0, 0, 0, 0, 0, 20]"] ;
243 -> 244 ;
245 [label="X[0] <= 0.886\ngini = 0.0768\nsamples = 25\nvalue = [0, 0, 0, 0, 0, 24, 0, 0, 0, 1]"] ;
243 -> 245 ;
246 [label="X[1] <= 0.6665\ngini = 0.4444\nsamples = 3\nvalue = [0, 0, 0, 0, 0, 2, 0, 0, 0, 1]"] ;
245 -> 246 ;
247 [label="gini = 0.0\nsamples = 2\nvalue = [0, 0, 0, 0, 0, 2, 0, 0, 0, 0]"] ;
246 -> 247 ;
248 [label="gini = 0.0\nsamples = 1\nvalue = [0, 0, 0, 0, 0, 0, 0, 0, 0, 1]"] ;
246 -> 248 ;
249 [label="gini = 0.0\nsamples = 22\nvalue = [0, 0, 0, 0, 0, 22, 0, 0, 0, 0]"] ;
245 -> 249 ;
250 [label="X[0] <= 0.6686\ngini = 0.6858\nsamples = 4855\nvalue = [1542, 0, 0, 5, 46, 9, 85, 0, 1579, 1589]"] ;
104 -> 250 ;
251 [label="X[0] <= 0.3344\ngini = 0.5361\nsamples = 3242\nvalue = [1541, 0, 0, 5, 29, 0, 85, 0, 1579, 3]"] ;
250 -> 251 ;
252 [label="X[1] <= 0.7016\ngini = 0.0529\nsamples = 1622\nvalue = [0, 0, 0, 5, 0, 0, 39, 0, 1578, 0]"] ;
251 -> 252 ;
253 [label="X[0] <= 0.2704\ngini = 0.3785\nsamples = 162\nvalue = [0, 0, 0, 5, 0, 0, 34, 0, 123, 0]"] ;
252 -> 253 ;
254 [label="X[0] <= 0.0026\ngini = 0.0906\nsamples = 127\nvalue = [0, 0, 0, 5, 0, 0, 1, 0, 121, 0]"] ;
253 -> 254 ;
255 [label="gini = 0.0\nsamples = 2\nvalue = [0, 0, 0, 2, 0, 0, 0, 0, 0, 0]"] ;
254 -> 255 ;
256 [label="X[0] <= 0.0274\ngini = 0.0623\nsamples = 125\nvalue = [0, 0, 0, 3, 0, 0, 1, 0, 121, 0]"] ;
254 -> 256 ;
257 [label="X[1] <= 0.6798\ngini = 0.4082\nsamples = 7\nvalue = [0, 0, 0, 2, 0, 0, 0, 0, 5, 0]"] ;
256 -> 257 ;
258 [label="gini = 0.0\nsamples = 2\nvalue = [0, 0, 0, 2, 0, 0, 0, 0, 0, 0]"] ;
257 -> 258 ;
259 [label="gini = 0.0\nsamples = 5\nvalue = [0, 0, 0, 0, 0, 0, 0, 0, 5, 0]"] ;
257 -> 259 ;
260 [label="X[1] <= 0.6733\ngini = 0.0335\nsamples = 118\nvalue = [0, 0, 0, 1, 0, 0, 1, 0, 116, 0]"] ;
256 -> 260 ;
261 [label="X[0] <= 0.0811\ngini = 0.4444\nsamples = 3\nvalue = [0, 0, 0, 1, 0, 0, 0, 0, 2, 0]"] ;
260 -> 261 ;
262 [label="gini = 0.0\nsamples = 1\nvalue = [0, 0, 0, 1, 0, 0, 0, 0, 0, 0]"] ;
261 -> 262 ;
263 [label="gini = 0.0\nsamples = 2\nvalue = [0, 0, 0, 0, 0, 0, 0, 0, 2, 0]"] ;
261 -> 263 ;
264 [label="X[0] <= 0.2652\ngini = 0.0172\nsamples = 115\nvalue = [0, 0, 0, 0, 0, 0, 1, 0, 114, 0]"] ;
260 -> 264 ;
265 [label="gini = 0.0\nsamples = 110\nvalue = [0, 0, 0, 0, 0, 0, 0, 0, 110, 0]"] ;
264 -> 265 ;
266 [label="X[0] <= 0.2663\ngini = 0.32\nsamples = 5\nvalue = [0, 0, 0, 0, 0, 0, 1, 0, 4, 0]"] ;
264 -> 266 ;
267 [label="gini = 0.0\nsamples = 1\nvalue = [0, 0, 0, 0, 0, 0, 1, 0, 0, 0]"] ;
266 -> 267 ;
268 [label="gini = 0.0\nsamples = 4\nvalue = [0, 0, 0, 0, 0, 0, 0, 0, 4, 0]"] ;
266 -> 268 ;
269 [label="X[0] <= 0.2779\ngini = 0.1078\nsamples = 35\nvalue = [0, 0, 0, 0, 0, 0, 33, 0, 2, 0]"] ;
253 -> 269 ;
270 [label="X[1] <= 0.6869\ngini = 0.5\nsamples = 2\nvalue = [0, 0, 0, 0, 0, 0, 1, 0, 1, 0]"] ;
269 -> 270 ;
271 [label="gini = 0.0\nsamples = 1\nvalue = [0, 0, 0, 0, 0, 0, 1, 0, 0, 0]"] ;
270 -> 271 ;
272 [label="gini = 0.0\nsamples = 1\nvalue = [0, 0, 0, 0, 0, 0, 0, 0, 1, 0]"] ;
270 -> 272 ;
273 [label="X[1] <= 0.6959\ngini = 0.0588\nsamples = 33\nvalue = [0, 0, 0, 0, 0, 0, 32, 0, 1, 0]"] ;
269 -> 273 ;
274 [label="gini = 0.0\nsamples = 25\nvalue = [0, 0, 0, 0, 0, 0, 25, 0, 0, 0]"] ;
273 -> 274 ;
275 [label="X[0] <= 0.2962\ngini = 0.2188\nsamples = 8\nvalue = [0, 0, 0, 0, 0, 0, 7, 0, 1, 0]"] ;
273 -> 275 ;
276 [label="gini = 0.0\nsamples = 1\nvalue = [0, 0, 0, 0, 0, 0, 0, 0, 1, 0]"] ;
275 -> 276 ;
277 [label="gini = 0.0\nsamples = 7\nvalue = [0, 0, 0, 0, 0, 0, 7, 0, 0, 0]"] ;
275 -> 277 ;
278 [label="X[0] <= 0.3258\ngini = 0.0068\nsamples = 1460\nvalue = [0, 0, 0, 0, 0, 0, 5, 0, 1455, 0]"] ;
252 -> 278 ;
279 [label="X[1] <= 0.7062\ngini = 0.0014\nsamples = 1420\nvalue = [0, 0, 0, 0, 0, 0, 1, 0, 1419, 0]"] ;
278 -> 279 ;
280 [label="X[0] <= 0.3093\ngini = 0.0768\nsamples = 25\nvalue = [0, 0, 0, 0, 0, 0, 1, 0, 24, 0]"] ;
279 -> 280 ;
281 [label="gini = 0.0\nsamples = 24\nvalue = [0, 0, 0, 0, 0, 0, 0, 0, 24, 0]"] ;
280 -> 281 ;
282 [label="gini = 0.0\nsamples = 1\nvalue = [0, 0, 0, 0, 0, 0, 1, 0, 0, 0]"] ;
280 -> 282 ;
283 [label="gini = 0.0\nsamples = 1395\nvalue = [0, 0, 0, 0, 0, 0, 0, 0, 1395, 0]"] ;
279 -> 283 ;
284 [label="X[1] <= 0.7204\ngini = 0.18\nsamples = 40\nvalue = [0, 0, 0, 0, 0, 0, 4, 0, 36, 0]"] ;
278 -> 284 ;
285 [label="gini = 0.0\nsamples = 4\nvalue = [0, 0, 0, 0, 0, 0, 4, 0, 0, 0]"] ;
284 -> 285 ;
286 [label="gini = 0.0\nsamples = 36\nvalue = [0, 0, 0, 0, 0, 0, 0, 0, 36, 0]"] ;
284 -> 286 ;
287 [label="X[1] <= 0.6998\ngini = 0.094\nsamples = 1620\nvalue = [1541, 0, 0, 0, 29, 0, 46, 0, 1, 3]"] ;
251 -> 287 ;
288 [label="X[0] <= 0.4196\ngini = 0.5972\nsamples = 143\nvalue = [78, 0, 0, 0, 28, 0, 37, 0, 0, 0]"] ;
287 -> 288 ;
289 [label="X[1] <= 0.6984\ngini = 0.0571\nsamples = 34\nvalue = [1, 0, 0, 0, 0, 0, 33, 0, 0, 0]"] ;
288 -> 289 ;
290 [label="gini = 0.0\nsamples = 33\nvalue = [0, 0, 0, 0, 0, 0, 33, 0, 0, 0]"] ;
289 -> 290 ;
291 [label="gini = 0.0\nsamples = 1\nvalue = [1, 0, 0, 0, 0, 0, 0, 0, 0, 0]"] ;
289 -> 291 ;
292 [label="X[0] <= 0.5757\ngini = 0.4336\nsamples = 109\nvalue = [77, 0, 0, 0, 28, 0, 4, 0, 0, 0]"] ;
288 -> 292 ;
293 [label="X[0] <= 0.438\ngini = 0.1228\nsamples = 77\nvalue = [72, 0, 0, 0, 1, 0, 4, 0, 0, 0]"] ;
292 -> 293 ;
294 [label="X[1] <= 0.684\ngini = 0.4628\nsamples = 11\nvalue = [7, 0, 0, 0, 0, 0, 4, 0, 0, 0]"] ;
293 -> 294 ;
295 [label="gini = 0.0\nsamples = 3\nvalue = [0, 0, 0, 0, 0, 0, 3, 0, 0, 0]"] ;
294 -> 295 ;
296 [label="X[0] <= 0.422\ngini = 0.2188\nsamples = 8\nvalue = [7, 0, 0, 0, 0, 0, 1, 0, 0, 0]"] ;
294 -> 296 ;
297 [label="X[1] <= 0.6894\ngini = 0.5\nsamples = 2\nvalue = [1, 0, 0, 0, 0, 0, 1, 0, 0, 0]"] ;
296 -> 297 ;
298 [label="gini = 0.0\nsamples = 1\nvalue = [0, 0, 0, 0, 0, 0, 1, 0, 0, 0]"] ;
297 -> 298 ;
299 [label="gini = 0.0\nsamples = 1\nvalue = [1, 0, 0, 0, 0, 0, 0, 0, 0, 0]"] ;
297 -> 299 ;
300 [label="gini = 0.0\nsamples = 6\nvalue = [6, 0, 0, 0, 0, 0, 0, 0, 0, 0]"] ;
296 -> 300 ;
301 [label="X[1] <= 0.6737\ngini = 0.0298\nsamples = 66\nvalue = [65, 0, 0, 0, 1, 0, 0, 0, 0, 0]"] ;
293 -> 301 ;
302 [label="X[1] <= 0.6732\ngini = 0.2449\nsamples = 7\nvalue = [6, 0, 0, 0, 1, 0, 0, 0, 0, 0]"] ;
301 -> 302 ;
303 [label="gini = 0.0\nsamples = 6\nvalue = [6, 0, 0, 0, 0, 0, 0, 0, 0, 0]"] ;
302 -> 303 ;
304 [label="gini = 0.0\nsamples = 1\nvalue = [0, 0, 0, 0, 1, 0, 0, 0, 0, 0]"] ;
302 -> 304 ;
305 [label="gini = 0.0\nsamples = 59\nvalue = [59, 0, 0, 0, 0, 0, 0, 0, 0, 0]"] ;
301 -> 305 ;
306 [label="X[0] <= 0.6141\ngini = 0.2637\nsamples = 32\nvalue = [5, 0, 0, 0, 27, 0, 0, 0, 0, 0]"] ;
292 -> 306 ;
307 [label="X[1] <= 0.6804\ngini = 0.4959\nsamples = 11\nvalue = [5, 0, 0, 0, 6, 0, 0, 0, 0, 0]"] ;
306 -> 307 ;
308 [label="gini = 0.0\nsamples = 5\nvalue = [0, 0, 0, 0, 5, 0, 0, 0, 0, 0]"] ;
307 -> 308 ;
309 [label="X[0] <= 0.604\ngini = 0.2778\nsamples = 6\nvalue = [5, 0, 0, 0, 1, 0, 0, 0, 0, 0]"] ;
307 -> 309 ;
310 [label="gini = 0.0\nsamples = 4\nvalue = [4, 0, 0, 0, 0, 0, 0, 0, 0, 0]"] ;
309 -> 310 ;
311 [label="X[1] <= 0.6904\ngini = 0.5\nsamples = 2\nvalue = [1, 0, 0, 0, 1, 0, 0, 0, 0, 0]"] ;
309 -> 311 ;
312 [label="gini = 0.0\nsamples = 1\nvalue = [0, 0, 0, 0, 1, 0, 0, 0, 0, 0]"] ;
311 -> 312 ;
313 [label="gini = 0.0\nsamples = 1\nvalue = [1, 0, 0, 0, 0, 0, 0, 0, 0, 0]"] ;
311 -> 313 ;
314 [label="gini = 0.0\nsamples = 21\nvalue = [0, 0, 0, 0, 21, 0, 0, 0, 0, 0]"] ;
306 -> 314 ;
315 [label="X[0] <= 0.3361\ngini = 0.0188\nsamples = 1477\nvalue = [1463, 0, 0, 0, 1, 0, 9, 0, 1, 3]"] ;
287 -> 315 ;
316 [label="X[1] <= 0.7548\ngini = 0.6122\nsamples = 7\nvalue = [3, 0, 0, 0, 0, 0, 3, 0, 1, 0]"] ;
315 -> 316 ;
317 [label="gini = 0.0\nsamples = 3\nvalue = [0, 0, 0, 0, 0, 0, 3, 0, 0, 0]"] ;
316 -> 317 ;
318 [label="X[1] <= 0.8239\ngini = 0.375\nsamples = 4\nvalue = [3, 0, 0, 0, 0, 0, 0, 0, 1, 0]"] ;
316 -> 318 ;
319 [label="gini = 0.0\nsamples = 1\nvalue = [0, 0, 0, 0, 0, 0, 0, 0, 1, 0]"] ;
318 -> 319 ;
320 [label="gini = 0.0\nsamples = 3\nvalue = [3, 0, 0, 0, 0, 0, 0, 0, 0, 0]"] ;
318 -> 320 ;
321 [label="X[0] <= 0.6669\ngini = 0.0135\nsamples = 1470\nvalue = [1460, 0, 0, 0, 1, 0, 6, 0, 0, 3]"] ;
315 -> 321 ;
322 [label="X[1] <= 0.7073\ngini = 0.0095\nsamples = 1462\nvalue = [1455, 0, 0, 0, 1, 0, 6, 0, 0, 0]"] ;
321 -> 322 ;
323 [label="X[0] <= 0.382\ngini = 0.2558\nsamples = 41\nvalue = [35, 0, 0, 0, 1, 0, 5, 0, 0, 0]"] ;
322 -> 323 ;
324 [label="gini = 0.0\nsamples = 5\nvalue = [0, 0, 0, 0, 0, 0, 5, 0, 0, 0]"] ;
323 -> 324 ;
325 [label="X[0] <= 0.6477\ngini = 0.054\nsamples = 36\nvalue = [35, 0, 0, 0, 1, 0, 0, 0, 0, 0]"] ;
323 -> 325 ;
326 [label="gini = 0.0\nsamples = 35\nvalue = [35, 0, 0, 0, 0, 0, 0, 0, 0, 0]"] ;
325 -> 326 ;
327 [label="gini = 0.0\nsamples = 1\nvalue = [0, 0, 0, 0, 1, 0, 0, 0, 0, 0]"] ;
325 -> 327 ;
328 [label="X[1] <= 0.7135\ngini = 0.0014\nsamples = 1421\nvalue = [1420, 0, 0, 0, 0, 0, 1, 0, 0, 0]"] ;
322 -> 328 ;
329 [label="X[1] <= 0.713\ngini = 0.0713\nsamples = 27\nvalue = [26, 0, 0, 0, 0, 0, 1, 0, 0, 0]"] ;
328 -> 329 ;
330 [label="gini = 0.0\nsamples = 26\nvalue = [26, 0, 0, 0, 0, 0, 0, 0, 0, 0]"] ;
329 -> 330 ;
331 [label="gini = 0.0\nsamples = 1\nvalue = [0, 0, 0, 0, 0, 0, 1, 0, 0, 0]"] ;
329 -> 331 ;
332 [label="gini = 0.0\nsamples = 1394\nvalue = [1394, 0, 0, 0, 0, 0, 0, 0, 0, 0]"] ;
328 -> 332 ;
333 [label="X[1] <= 0.8363\ngini = 0.4688\nsamples = 8\nvalue = [5, 0, 0, 0, 0, 0, 0, 0, 0, 3]"] ;
321 -> 333 ;
334 [label="gini = 0.0\nsamples = 3\nvalue = [0, 0, 0, 0, 0, 0, 0, 0, 0, 3]"] ;
333 -> 334 ;
335 [label="gini = 0.0\nsamples = 5\nvalue = [5, 0, 0, 0, 0, 0, 0, 0, 0, 0]"] ;
333 -> 335 ;
336 [label="X[1] <= 0.6957\ngini = 0.0331\nsamples = 1613\nvalue = [1, 0, 0, 0, 17, 9, 0, 0, 0, 1586]"] ;
250 -> 336 ;
337 [label="X[0] <= 0.7137\ngini = 0.3656\nsamples = 118\nvalue = [0, 0, 0, 0, 17, 9, 0, 0, 0, 92]"] ;
336 -> 337 ;
338 [label="X[0] <= 0.7043\ngini = 0.1049\nsamples = 18\nvalue = [0, 0, 0, 0, 17, 0, 0, 0, 0, 1]"] ;
337 -> 338 ;
339 [label="gini = 0.0\nsamples = 15\nvalue = [0, 0, 0, 0, 15, 0, 0, 0, 0, 0]"] ;
338 -> 339 ;
340 [label="X[0] <= 0.7071\ngini = 0.4444\nsamples = 3\nvalue = [0, 0, 0, 0, 2, 0, 0, 0, 0, 1]"] ;
338 -> 340 ;
341 [label="gini = 0.0\nsamples = 1\nvalue = [0, 0, 0, 0, 0, 0, 0, 0, 0, 1]"] ;
340 -> 341 ;
342 [label="gini = 0.0\nsamples = 2\nvalue = [0, 0, 0, 0, 2, 0, 0, 0, 0, 0]"] ;
340 -> 342 ;
343 [label="X[0] <= 0.9434\ngini = 0.1638\nsamples = 100\nvalue = [0, 0, 0, 0, 0, 9, 0, 0, 0, 91]"] ;
337 -> 343 ;
344 [label="gini = 0.0\nsamples = 84\nvalue = [0, 0, 0, 0, 0, 0, 0, 0, 0, 84]"] ;
343 -> 344 ;
345 [label="X[1] <= 0.681\ngini = 0.4922\nsamples = 16\nvalue = [0, 0, 0, 0, 0, 9, 0, 0, 0, 7]"] ;
343 -> 345 ;
346 [label="gini = 0.0\nsamples = 8\nvalue = [0, 0, 0, 0, 0, 8, 0, 0, 0, 0]"] ;
345 -> 346 ;
347 [label="X[1] <= 0.6844\ngini = 0.2188\nsamples = 8\nvalue = [0, 0, 0, 0, 0, 1, 0, 0, 0, 7]"] ;
345 -> 347 ;
348 [label="X[0] <= 0.9678\ngini = 0.5\nsamples = 2\nvalue = [0, 0, 0, 0, 0, 1, 0, 0, 0, 1]"] ;
347 -> 348 ;
349 [label="gini = 0.0\nsamples = 1\nvalue = [0, 0, 0, 0, 0, 0, 0, 0, 0, 1]"] ;
348 -> 349 ;
350 [label="gini = 0.0\nsamples = 1\nvalue = [0, 0, 0, 0, 0, 1, 0, 0, 0, 0]"] ;
348 -> 350 ;
351 [label="gini = 0.0\nsamples = 6\nvalue = [0, 0, 0, 0, 0, 0, 0, 0, 0, 6]"] ;
347 -> 351 ;
352 [label="X[0] <= 0.669\ngini = 0.0013\nsamples = 1495\nvalue = [1, 0, 0, 0, 0, 0, 0, 0, 0, 1494]"] ;
336 -> 352 ;
353 [label="X[1] <= 0.8178\ngini = 0.4444\nsamples = 3\nvalue = [1, 0, 0, 0, 0, 0, 0, 0, 0, 2]"] ;
352 -> 353 ;
354 [label="gini = 0.0\nsamples = 2\nvalue = [0, 0, 0, 0, 0, 0, 0, 0, 0, 2]"] ;
353 -> 354 ;
355 [label="gini = 0.0\nsamples = 1\nvalue = [1, 0, 0, 0, 0, 0, 0, 0, 0, 0]"] ;
353 -> 355 ;
356 [label="gini = 0.0\nsamples = 1492\nvalue = [0, 0, 0, 0, 0, 0, 0, 0, 0, 1492]"] ;
352 -> 356 ;
}
